digraph Tree {
node [shape=box] ;
0 [label="X[8] <= 0.5\nentropy = 0.961\nsamples = 891\nvalue = [549, 342]"] ;
1 [label="X[6] <= 2.5\nentropy = 0.824\nsamples = 314\nvalue = [81, 233]"] ;
0 -> 1 [labeldistance=2.5, labelangle=45, headlabel="True"] ;
2 [label="X[4] <= 28.856\nentropy = 0.299\nsamples = 170\nvalue = [9, 161]"] ;
1 -> 2 ;
3 [label="X[4] <= 28.231\nentropy = 0.469\nsamples = 70\nvalue = [7, 63]"] ;
2 -> 3 ;
4 [label="X[0] <= 23.5\nentropy = 0.426\nsamples = 69\nvalue = [6, 63]"] ;
3 -> 4 ;
5 [label="entropy = 0.0\nsamples = 15\nvalue = [0, 15]"] ;
4 -> 5 ;
6 [label="X[0] <= 27.5\nentropy = 0.503\nsamples = 54\nvalue = [6, 48]"] ;
4 -> 6 ;
7 [label="X[0] <= 25.5\nentropy = 0.845\nsamples = 11\nvalue = [3, 8]"] ;
6 -> 7 ;
8 [label="X[4] <= 13.75\nentropy = 0.592\nsamples = 7\nvalue = [1, 6]"] ;
7 -> 8 ;
9 [label="entropy = 1.0\nsamples = 2\nvalue = [1, 1]"] ;
8 -> 9 ;
10 [label="entropy = 0.0\nsamples = 5\nvalue = [0, 5]"] ;
8 -> 10 ;
11 [label="X[4] <= 17.429\nentropy = 1.0\nsamples = 4\nvalue = [2, 2]"] ;
7 -> 11 ;
12 [label="entropy = 0.0\nsamples = 2\nvalue = [0, 2]"] ;
11 -> 12 ;
13 [label="entropy = 0.0\nsamples = 2\nvalue = [2, 0]"] ;
11 -> 13 ;
14 [label="X[0] <= 37.0\nentropy = 0.365\nsamples = 43\nvalue = [3, 40]"] ;
6 -> 14 ;
15 [label="entropy = 0.0\nsamples = 24\nvalue = [0, 24]"] ;
14 -> 15 ;
16 [label="X[0] <= 39.0\nentropy = 0.629\nsamples = 19\nvalue = [3, 16]"] ;
14 -> 16 ;
17 [label="entropy = 0.0\nsamples = 1\nvalue = [1, 0]"] ;
16 -> 17 ;
18 [label="X[0] <= 56.0\nentropy = 0.503\nsamples = 18\nvalue = [2, 16]"] ;
16 -> 18 ;
19 [label="X[9] <= 0.5\nentropy = 0.337\nsamples = 16\nvalue = [1, 15]"] ;
18 -> 19 ;
20 [label="entropy = 0.0\nsamples = 12\nvalue = [0, 12]"] ;
19 -> 20 ;
21 [label="X[5] <= 0.5\nentropy = 0.811\nsamples = 4\nvalue = [1, 3]"] ;
19 -> 21 ;
22 [label="X[0] <= 43.0\nentropy = 1.0\nsamples = 2\nvalue = [1, 1]"] ;
21 -> 22 ;
23 [label="entropy = 0.0\nsamples = 1\nvalue = [0, 1]"] ;
22 -> 23 ;
24 [label="entropy = 0.0\nsamples = 1\nvalue = [1, 0]"] ;
22 -> 24 ;
25 [label="entropy = 0.0\nsamples = 2\nvalue = [0, 2]"] ;
21 -> 25 ;
26 [label="X[4] <= 18.525\nentropy = 1.0\nsamples = 2\nvalue = [1, 1]"] ;
18 -> 26 ;
27 [label="entropy = 0.0\nsamples = 1\nvalue = [1, 0]"] ;
26 -> 27 ;
28 [label="entropy = 0.0\nsamples = 1\nvalue = [0, 1]"] ;
26 -> 28 ;
29 [label="entropy = 0.0\nsamples = 1\nvalue = [1, 0]"] ;
3 -> 29 ;
30 [label="X[0] <= 2.5\nentropy = 0.141\nsamples = 100\nvalue = [2, 98]"] ;
2 -> 30 ;
31 [label="entropy = 0.0\nsamples = 1\nvalue = [1, 0]"] ;
30 -> 31 ;
32 [label="X[5] <= 1.5\nentropy = 0.081\nsamples = 99\nvalue = [1, 98]"] ;
30 -> 32 ;
33 [label="entropy = 0.0\nsamples = 84\nvalue = [0, 84]"] ;
32 -> 33 ;
34 [label="X[0] <= 24.5\nentropy = 0.353\nsamples = 15\nvalue = [1, 14]"] ;
32 -> 34 ;
35 [label="entropy = 0.0\nsamples = 10\nvalue = [0, 10]"] ;
34 -> 35 ;
36 [label="X[0] <= 28.0\nentropy = 0.722\nsamples = 5\nvalue = [1, 4]"] ;
34 -> 36 ;
37 [label="entropy = 0.0\nsamples = 1\nvalue = [1, 0]"] ;
36 -> 37 ;
38 [label="entropy = 0.0\nsamples = 4\nvalue = [0, 4]"] ;
36 -> 38 ;
39 [label="X[4] <= 23.35\nentropy = 1.0\nsamples = 144\nvalue = [72, 72]"] ;
1 -> 39 ;
40 [label="X[0] <= 36.5\nentropy = 0.977\nsamples = 117\nvalue = [48, 69]"] ;
39 -> 40 ;
41 [label="X[3] <= 0.5\nentropy = 0.959\nsamples = 110\nvalue = [42, 68]"] ;
40 -> 41 ;
42 [label="X[4] <= 15.621\nentropy = 0.86\nsamples = 53\nvalue = [15, 38]"] ;
41 -> 42 ;
43 [label="X[4] <= 13.935\nentropy = 0.918\nsamples = 45\nvalue = [15, 30]"] ;
42 -> 43 ;
44 [label="X[0] <= 17.0\nentropy = 0.758\nsamples = 32\nvalue = [7, 25]"] ;
43 -> 44 ;
45 [label="entropy = 0.0\nsamples = 7\nvalue = [0, 7]"] ;
44 -> 45 ;
46 [label="X[0] <= 18.5\nentropy = 0.855\nsamples = 25\nvalue = [7, 18]"] ;
44 -> 46 ;
47 [label="entropy = 0.0\nsamples = 1\nvalue = [1, 0]"] ;
46 -> 47 ;
48 [label="X[4] <= 8.008\nentropy = 0.811\nsamples = 24\nvalue = [6, 18]"] ;
46 -> 48 ;
49 [label="X[4] <= 7.769\nentropy = 0.755\nsamples = 23\nvalue = [5, 18]"] ;
48 -> 49 ;
50 [label="X[0] <= 21.5\nentropy = 0.874\nsamples = 17\nvalue = [5, 12]"] ;
49 -> 50 ;
51 [label="entropy = 0.0\nsamples = 1\nvalue = [1, 0]"] ;
50 -> 51 ;
52 [label="X[0] <= 30.1\nentropy = 0.811\nsamples = 16\nvalue = [4, 12]"] ;
50 -> 52 ;
53 [label="X[5] <= 1.0\nentropy = 0.722\nsamples = 15\nvalue = [3, 12]"] ;
52 -> 53 ;
54 [label="X[4] <= 7.681\nentropy = 0.592\nsamples = 14\nvalue = [2, 12]"] ;
53 -> 54 ;
55 [label="X[2] <= 0.5\nentropy = 0.918\nsamples = 3\nvalue = [1, 2]"] ;
54 -> 55 ;
56 [label="entropy = 0.0\nsamples = 2\nvalue = [0, 2]"] ;
55 -> 56 ;
57 [label="entropy = 0.0\nsamples = 1\nvalue = [1, 0]"] ;
55 -> 57 ;
58 [label="X[4] <= 7.744\nentropy = 0.439\nsamples = 11\nvalue = [1, 10]"] ;
54 -> 58 ;
59 [label="entropy = 0.0\nsamples = 2\nvalue = [0, 2]"] ;
58 -> 59 ;
60 [label="X[0] <= 25.85\nentropy = 0.503\nsamples = 9\nvalue = [1, 8]"] ;
58 -> 60 ;
61 [label="entropy = 0.0\nsamples = 1\nvalue = [0, 1]"] ;
60 -> 61 ;
62 [label="entropy = 0.544\nsamples = 8\nvalue = [1, 7]"] ;
60 -> 62 ;
63 [label="entropy = 0.0\nsamples = 1\nvalue = [1, 0]"] ;
53 -> 63 ;
64 [label="entropy = 0.0\nsamples = 1\nvalue = [1, 0]"] ;
52 -> 64 ;
65 [label="entropy = 0.0\nsamples = 6\nvalue = [0, 6]"] ;
49 -> 65 ;
66 [label="entropy = 0.0\nsamples = 1\nvalue = [1, 0]"] ;
48 -> 66 ;
67 [label="X[4] <= 15.373\nentropy = 0.961\nsamples = 13\nvalue = [8, 5]"] ;
43 -> 67 ;
68 [label="X[0] <= 29.35\nentropy = 0.764\nsamples = 9\nvalue = [7, 2]"] ;
67 -> 68 ;
69 [label="X[0] <= 23.5\nentropy = 0.918\nsamples = 6\nvalue = [4, 2]"] ;
68 -> 69 ;
70 [label="X[5] <= 0.5\nentropy = 0.722\nsamples = 5\nvalue = [4, 1]"] ;
69 -> 70 ;
71 [label="X[0] <= 14.75\nentropy = 0.918\nsamples = 3\nvalue = [2, 1]"] ;
70 -> 71 ;
72 [label="entropy = 0.0\nsamples = 1\nvalue = [1, 0]"] ;
71 -> 72 ;
73 [label="X[4] <= 14.456\nentropy = 1.0\nsamples = 2\nvalue = [1, 1]"] ;
71 -> 73 ;
74 [label="entropy = 0.0\nsamples = 1\nvalue = [0, 1]"] ;
73 -> 74 ;
75 [label="entropy = 0.0\nsamples = 1\nvalue = [1, 0]"] ;
73 -> 75 ;
76 [label="entropy = 0.0\nsamples = 2\nvalue = [2, 0]"] ;
70 -> 76 ;
77 [label="entropy = 0.0\nsamples = 1\nvalue = [0, 1]"] ;
69 -> 77 ;
78 [label="entropy = 0.0\nsamples = 3\nvalue = [3, 0]"] ;
68 -> 78 ;
79 [label="X[5] <= 0.5\nentropy = 0.811\nsamples = 4\nvalue = [1, 3]"] ;
67 -> 79 ;
80 [label="entropy = 0.0\nsamples = 3\nvalue = [0, 3]"] ;
79 -> 80 ;
81 [label="entropy = 0.0\nsamples = 1\nvalue = [1, 0]"] ;
79 -> 81 ;
82 [label="entropy = 0.0\nsamples = 8\nvalue = [0, 8]"] ;
42 -> 82 ;
83 [label="X[0] <= 32.0\nentropy = 0.998\nsamples = 57\nvalue = [27, 30]"] ;
41 -> 83 ;
84 [label="X[4] <= 7.763\nentropy = 1.0\nsamples = 54\nvalue = [27, 27]"] ;
83 -> 84 ;
85 [label="X[0] <= 26.35\nentropy = 0.65\nsamples = 6\nvalue = [1, 5]"] ;
84 -> 85 ;
86 [label="entropy = 0.0\nsamples = 5\nvalue = [0, 5]"] ;
85 -> 86 ;
87 [label="entropy = 0.0\nsamples = 1\nvalue = [1, 0]"] ;
85 -> 87 ;
88 [label="X[4] <= 10.825\nentropy = 0.995\nsamples = 48\nvalue = [26, 22]"] ;
84 -> 88 ;
89 [label="X[4] <= 10.152\nentropy = 0.918\nsamples = 27\nvalue = [18, 9]"] ;
88 -> 89 ;
90 [label="X[5] <= 0.5\nentropy = 0.954\nsamples = 24\nvalue = [15, 9]"] ;
89 -> 90 ;
91 [label="X[4] <= 9.84\nentropy = 0.902\nsamples = 22\nvalue = [15, 7]"] ;
90 -> 91 ;
92 [label="X[4] <= 8.767\nentropy = 0.863\nsamples = 21\nvalue = [15, 6]"] ;
91 -> 92 ;
93 [label="X[4] <= 8.673\nentropy = 0.937\nsamples = 17\nvalue = [11, 6]"] ;
92 -> 93 ;
94 [label="X[0] <= 27.5\nentropy = 0.896\nsamples = 16\nvalue = [11, 5]"] ;
93 -> 94 ;
95 [label="X[0] <= 25.5\nentropy = 0.994\nsamples = 11\nvalue = [6, 5]"] ;
94 -> 95 ;
96 [label="X[0] <= 22.5\nentropy = 0.811\nsamples = 8\nvalue = [6, 2]"] ;
95 -> 96 ;
97 [label="X[0] <= 18.5\nentropy = 0.971\nsamples = 5\nvalue = [3, 2]"] ;
96 -> 97 ;
98 [label="entropy = 0.0\nsamples = 2\nvalue = [2, 0]"] ;
97 -> 98 ;
99 [label="X[4] <= 8.258\nentropy = 0.918\nsamples = 3\nvalue = [1, 2]"] ;
97 -> 99 ;
100 [label="entropy = 0.0\nsamples = 2\nvalue = [0, 2]"] ;
99 -> 100 ;
101 [label="entropy = 0.0\nsamples = 1\nvalue = [1, 0]"] ;
99 -> 101 ;
102 [label="entropy = 0.0\nsamples = 3\nvalue = [3, 0]"] ;
96 -> 102 ;
103 [label="entropy = 0.0\nsamples = 3\nvalue = [0, 3]"] ;
95 -> 103 ;
104 [label="entropy = 0.0\nsamples = 5\nvalue = [5, 0]"] ;
94 -> 104 ;
105 [label="entropy = 0.0\nsamples = 1\nvalue = [0, 1]"] ;
93 -> 105 ;
106 [label="entropy = 0.0\nsamples = 4\nvalue = [4, 0]"] ;
92 -> 106 ;
107 [label="entropy = 0.0\nsamples = 1\nvalue = [0, 1]"] ;
91 -> 107 ;
108 [label="entropy = 0.0\nsamples = 2\nvalue = [0, 2]"] ;
90 -> 108 ;
109 [label="entropy = 0.0\nsamples = 3\nvalue = [3, 0]"] ;
89 -> 109 ;
110 [label="X[4] <= 17.25\nentropy = 0.959\nsamples = 21\nvalue = [8, 13]"] ;
88 -> 110 ;
111 [label="X[0] <= 25.0\nentropy = 0.619\nsamples = 13\nvalue = [2, 11]"] ;
110 -> 111 ;
112 [label="entropy = 0.0\nsamples = 6\nvalue = [0, 6]"] ;
111 -> 112 ;
113 [label="X[0] <= 26.5\nentropy = 0.863\nsamples = 7\nvalue = [2, 5]"] ;
111 -> 113 ;
114 [label="entropy = 0.0\nsamples = 1\nvalue = [1, 0]"] ;
113 -> 114 ;
115 [label="X[4] <= 13.438\nentropy = 0.65\nsamples = 6\nvalue = [1, 5]"] ;
113 -> 115 ;
116 [label="entropy = 0.0\nsamples = 3\nvalue = [0, 3]"] ;
115 -> 116 ;
117 [label="X[5] <= 0.5\nentropy = 0.918\nsamples = 3\nvalue = [1, 2]"] ;
115 -> 117 ;
118 [label="entropy = 0.0\nsamples = 2\nvalue = [0, 2]"] ;
117 -> 118 ;
119 [label="entropy = 0.0\nsamples = 1\nvalue = [1, 0]"] ;
117 -> 119 ;
120 [label="X[4] <= 21.55\nentropy = 0.811\nsamples = 8\nvalue = [6, 2]"] ;
110 -> 120 ;
121 [label="X[0] <= 30.0\nentropy = 0.592\nsamples = 7\nvalue = [6, 1]"] ;
120 -> 121 ;
122 [label="entropy = 0.0\nsamples = 5\nvalue = [5, 0]"] ;
121 -> 122 ;
123 [label="X[5] <= 0.5\nentropy = 1.0\nsamples = 2\nvalue = [1, 1]"] ;
121 -> 123 ;
124 [label="entropy = 0.0\nsamples = 1\nvalue = [1, 0]"] ;
123 -> 124 ;
125 [label="entropy = 0.0\nsamples = 1\nvalue = [0, 1]"] ;
123 -> 125 ;
126 [label="entropy = 0.0\nsamples = 1\nvalue = [0, 1]"] ;
120 -> 126 ;
127 [label="entropy = 0.0\nsamples = 3\nvalue = [0, 3]"] ;
83 -> 127 ;
128 [label="X[0] <= 55.0\nentropy = 0.592\nsamples = 7\nvalue = [6, 1]"] ;
40 -> 128 ;
129 [label="entropy = 0.0\nsamples = 6\nvalue = [6, 0]"] ;
128 -> 129 ;
130 [label="entropy = 0.0\nsamples = 1\nvalue = [0, 1]"] ;
128 -> 130 ;
131 [label="X[5] <= 0.5\nentropy = 0.503\nsamples = 27\nvalue = [24, 3]"] ;
39 -> 131 ;
132 [label="entropy = 0.0\nsamples = 1\nvalue = [0, 1]"] ;
131 -> 132 ;
133 [label="X[4] <= 31.331\nentropy = 0.391\nsamples = 26\nvalue = [24, 2]"] ;
131 -> 133 ;
134 [label="entropy = 0.0\nsamples = 15\nvalue = [15, 0]"] ;
133 -> 134 ;
135 [label="X[4] <= 32.881\nentropy = 0.684\nsamples = 11\nvalue = [9, 2]"] ;
133 -> 135 ;
136 [label="entropy = 0.0\nsamples = 2\nvalue = [0, 2]"] ;
135 -> 136 ;
137 [label="entropy = 0.0\nsamples = 9\nvalue = [9, 0]"] ;
135 -> 137 ;
138 [label="X[4] <= 26.269\nentropy = 0.699\nsamples = 577\nvalue = [468, 109]"] ;
0 -> 138 [labeldistance=2.5, labelangle=-45, headlabel="False"] ;
139 [label="X[0] <= 13.5\nentropy = 0.558\nsamples = 415\nvalue = [361, 54]"] ;
138 -> 139 ;
140 [label="X[9] <= 2.0\nentropy = 0.567\nsamples = 15\nvalue = [2, 13]"] ;
139 -> 140 ;
141 [label="X[5] <= 0.5\nentropy = 0.371\nsamples = 14\nvalue = [1, 13]"] ;
140 -> 141 ;
142 [label="X[0] <= 11.5\nentropy = 1.0\nsamples = 2\nvalue = [1, 1]"] ;
141 -> 142 ;
143 [label="entropy = 0.0\nsamples = 1\nvalue = [1, 0]"] ;
142 -> 143 ;
144 [label="entropy = 0.0\nsamples = 1\nvalue = [0, 1]"] ;
142 -> 144 ;
145 [label="entropy = 0.0\nsamples = 12\nvalue = [0, 12]"] ;
141 -> 145 ;
146 [label="entropy = 0.0\nsamples = 1\nvalue = [1, 0]"] ;
140 -> 146 ;
147 [label="X[1] <= 0.5\nentropy = 0.477\nsamples = 400\nvalue = [359, 41]"] ;
139 -> 147 ;
148 [label="X[4] <= 13.25\nentropy = 0.437\nsamples = 355\nvalue = [323, 32]"] ;
147 -> 148 ;
149 [label="X[4] <= 7.91\nentropy = 0.479\nsamples = 291\nvalue = [261, 30]"] ;
148 -> 149 ;
150 [label="X[4] <= 7.865\nentropy = 0.353\nsamples = 150\nvalue = [140, 10]"] ;
149 -> 150 ;
151 [label="X[0] <= 32.5\nentropy = 0.424\nsamples = 116\nvalue = [106, 10]"] ;
150 -> 151 ;
152 [label="X[0] <= 20.75\nentropy = 0.507\nsamples = 89\nvalue = [79, 10]"] ;
151 -> 152 ;
153 [label="entropy = 0.0\nsamples = 16\nvalue = [16, 0]"] ;
152 -> 153 ;
154 [label="X[4] <= 7.763\nentropy = 0.576\nsamples = 73\nvalue = [63, 10]"] ;
152 -> 154 ;
155 [label="X[0] <= 29.35\nentropy = 0.451\nsamples = 53\nvalue = [48, 5]"] ;
154 -> 155 ;
156 [label="X[4] <= 7.01\nentropy = 0.742\nsamples = 19\nvalue = [15, 4]"] ;
155 -> 156 ;
157 [label="entropy = 0.0\nsamples = 2\nvalue = [0, 2]"] ;
156 -> 157 ;
158 [label="X[4] <= 7.746\nentropy = 0.523\nsamples = 17\nvalue = [15, 2]"] ;
156 -> 158 ;
159 [label="X[4] <= 7.196\nentropy = 0.337\nsamples = 16\nvalue = [15, 1]"] ;
158 -> 159 ;
160 [label="X[4] <= 7.133\nentropy = 0.65\nsamples = 6\nvalue = [5, 1]"] ;
159 -> 160 ;
161 [label="entropy = 0.0\nsamples = 5\nvalue = [5, 0]"] ;
160 -> 161 ;
162 [label="entropy = 0.0\nsamples = 1\nvalue = [0, 1]"] ;
160 -> 162 ;
163 [label="entropy = 0.0\nsamples = 10\nvalue = [10, 0]"] ;
159 -> 163 ;
164 [label="entropy = 0.0\nsamples = 1\nvalue = [0, 1]"] ;
158 -> 164 ;
165 [label="X[4] <= 7.744\nentropy = 0.191\nsamples = 34\nvalue = [33, 1]"] ;
155 -> 165 ;
166 [label="entropy = 0.0\nsamples = 21\nvalue = [21, 0]"] ;
165 -> 166 ;
167 [label="X[0] <= 30.35\nentropy = 0.391\nsamples = 13\nvalue = [12, 1]"] ;
165 -> 167 ;
168 [label="X[9] <= 0.5\nentropy = 0.439\nsamples = 11\nvalue = [10, 1]"] ;
167 -> 168 ;
169 [label="entropy = 0.469\nsamples = 10\nvalue = [9, 1]"] ;
168 -> 169 ;
170 [label="entropy = 0.0\nsamples = 1\nvalue = [1, 0]"] ;
168 -> 170 ;
171 [label="entropy = 0.0\nsamples = 2\nvalue = [2, 0]"] ;
167 -> 171 ;
172 [label="X[0] <= 31.5\nentropy = 0.811\nsamples = 20\nvalue = [15, 5]"] ;
154 -> 172 ;
173 [label="X[4] <= 7.798\nentropy = 0.742\nsamples = 19\nvalue = [15, 4]"] ;
172 -> 173 ;
174 [label="X[0] <= 30.35\nentropy = 0.89\nsamples = 13\nvalue = [9, 4]"] ;
173 -> 174 ;
175 [label="X[9] <= 0.5\nentropy = 0.918\nsamples = 12\nvalue = [8, 4]"] ;
174 -> 175 ;
176 [label="X[0] <= 26.5\nentropy = 0.881\nsamples = 10\nvalue = [7, 3]"] ;
175 -> 176 ;
177 [label="X[0] <= 21.5\nentropy = 0.722\nsamples = 5\nvalue = [4, 1]"] ;
176 -> 177 ;
178 [label="X[4] <= 7.785\nentropy = 1.0\nsamples = 2\nvalue = [1, 1]"] ;
177 -> 178 ;
179 [label="entropy = 0.0\nsamples = 1\nvalue = [1, 0]"] ;
178 -> 179 ;
180 [label="entropy = 0.0\nsamples = 1\nvalue = [0, 1]"] ;
178 -> 180 ;
181 [label="entropy = 0.0\nsamples = 3\nvalue = [3, 0]"] ;
177 -> 181 ;
182 [label="X[0] <= 27.5\nentropy = 0.971\nsamples = 5\nvalue = [3, 2]"] ;
176 -> 182 ;
183 [label="entropy = 0.0\nsamples = 1\nvalue = [0, 1]"] ;
182 -> 183 ;
184 [label="X[0] <= 29.35\nentropy = 0.811\nsamples = 4\nvalue = [3, 1]"] ;
182 -> 184 ;
185 [label="entropy = 0.0\nsamples = 2\nvalue = [2, 0]"] ;
184 -> 185 ;
186 [label="entropy = 1.0\nsamples = 2\nvalue = [1, 1]"] ;
184 -> 186 ;
187 [label="entropy = 1.0\nsamples = 2\nvalue = [1, 1]"] ;
175 -> 187 ;
188 [label="entropy = 0.0\nsamples = 1\nvalue = [1, 0]"] ;
174 -> 188 ;
189 [label="entropy = 0.0\nsamples = 6\nvalue = [6, 0]"] ;
173 -> 189 ;
190 [label="entropy = 0.0\nsamples = 1\nvalue = [0, 1]"] ;
172 -> 190 ;
191 [label="entropy = 0.0\nsamples = 27\nvalue = [27, 0]"] ;
151 -> 191 ;
192 [label="entropy = 0.0\nsamples = 34\nvalue = [34, 0]"] ;
150 -> 192 ;
193 [label="X[4] <= 7.988\nentropy = 0.589\nsamples = 141\nvalue = [121, 20]"] ;
149 -> 193 ;
194 [label="X[9] <= 1.5\nentropy = 0.961\nsamples = 13\nvalue = [8, 5]"] ;
193 -> 194 ;
195 [label="X[0] <= 41.5\nentropy = 0.994\nsamples = 11\nvalue = [6, 5]"] ;
194 -> 195 ;
196 [label="X[9] <= 0.5\nentropy = 0.971\nsamples = 10\nvalue = [6, 4]"] ;
195 -> 196 ;
197 [label="X[0] <= 26.0\nentropy = 0.918\nsamples = 9\nvalue = [6, 3]"] ;
196 -> 197 ;
198 [label="entropy = 0.0\nsamples = 3\nvalue = [3, 0]"] ;
197 -> 198 ;
199 [label="X[0] <= 31.5\nentropy = 1.0\nsamples = 6\nvalue = [3, 3]"] ;
197 -> 199 ;
200 [label="entropy = 0.0\nsamples = 1\nvalue = [0, 1]"] ;
199 -> 200 ;
201 [label="X[0] <= 35.5\nentropy = 0.971\nsamples = 5\nvalue = [3, 2]"] ;
199 -> 201 ;
202 [label="entropy = 0.918\nsamples = 3\nvalue = [2, 1]"] ;
201 -> 202 ;
203 [label="entropy = 1.0\nsamples = 2\nvalue = [1, 1]"] ;
201 -> 203 ;
204 [label="entropy = 0.0\nsamples = 1\nvalue = [0, 1]"] ;
196 -> 204 ;
205 [label="entropy = 0.0\nsamples = 1\nvalue = [0, 1]"] ;
195 -> 205 ;
206 [label="entropy = 0.0\nsamples = 2\nvalue = [2, 0]"] ;
194 -> 206 ;
207 [label="X[0] <= 19.5\nentropy = 0.521\nsamples = 128\nvalue = [113, 15]"] ;
193 -> 207 ;
208 [label="X[4] <= 8.104\nentropy = 0.722\nsamples = 20\nvalue = [16, 4]"] ;
207 -> 208 ;
209 [label="X[0] <= 17.0\nentropy = 0.971\nsamples = 5\nvalue = [2, 3]"] ;
208 -> 209 ;
210 [label="entropy = 1.0\nsamples = 2\nvalue = [1, 1]"] ;
209 -> 210 ;
211 [label="X[0] <= 18.5\nentropy = 0.918\nsamples = 3\nvalue = [1, 2]"] ;
209 -> 211 ;
212 [label="entropy = 0.0\nsamples = 1\nvalue = [0, 1]"] ;
211 -> 212 ;
213 [label="entropy = 1.0\nsamples = 2\nvalue = [1, 1]"] ;
211 -> 213 ;
214 [label="X[0] <= 18.5\nentropy = 0.353\nsamples = 15\nvalue = [14, 1]"] ;
208 -> 214 ;
215 [label="entropy = 0.0\nsamples = 10\nvalue = [10, 0]"] ;
214 -> 215 ;
216 [label="X[4] <= 10.335\nentropy = 0.722\nsamples = 5\nvalue = [4, 1]"] ;
214 -> 216 ;
217 [label="entropy = 0.0\nsamples = 2\nvalue = [2, 0]"] ;
216 -> 217 ;
218 [label="X[4] <= 11.75\nentropy = 0.918\nsamples = 3\nvalue = [2, 1]"] ;
216 -> 218 ;
219 [label="entropy = 1.0\nsamples = 2\nvalue = [1, 1]"] ;
218 -> 219 ;
220 [label="entropy = 0.0\nsamples = 1\nvalue = [1, 0]"] ;
218 -> 220 ;
221 [label="X[0] <= 26.5\nentropy = 0.475\nsamples = 108\nvalue = [97, 11]"] ;
207 -> 221 ;
222 [label="entropy = 0.0\nsamples = 31\nvalue = [31, 0]"] ;
221 -> 222 ;
223 [label="X[4] <= 8.081\nentropy = 0.592\nsamples = 77\nvalue = [66, 11]"] ;
221 -> 223 ;
224 [label="X[0] <= 31.25\nentropy = 0.371\nsamples = 28\nvalue = [26, 2]"] ;
223 -> 224 ;
225 [label="entropy = 0.0\nsamples = 16\nvalue = [16, 0]"] ;
224 -> 225 ;
226 [label="X[0] <= 33.0\nentropy = 0.65\nsamples = 12\nvalue = [10, 2]"] ;
224 -> 226 ;
227 [label="entropy = 0.0\nsamples = 1\nvalue = [0, 1]"] ;
226 -> 227 ;
228 [label="X[0] <= 44.5\nentropy = 0.439\nsamples = 11\nvalue = [10, 1]"] ;
226 -> 228 ;
229 [label="entropy = 0.0\nsamples = 7\nvalue = [7, 0]"] ;
228 -> 229 ;
230 [label="X[0] <= 47.5\nentropy = 0.811\nsamples = 4\nvalue = [3, 1]"] ;
228 -> 230 ;
231 [label="entropy = 0.0\nsamples = 1\nvalue = [0, 1]"] ;
230 -> 231 ;
232 [label="entropy = 0.0\nsamples = 3\nvalue = [3, 0]"] ;
230 -> 232 ;
233 [label="X[4] <= 8.238\nentropy = 0.688\nsamples = 49\nvalue = [40, 9]"] ;
223 -> 233 ;
234 [label="entropy = 0.0\nsamples = 1\nvalue = [0, 1]"] ;
233 -> 234 ;
235 [label="X[4] <= 8.658\nentropy = 0.65\nsamples = 48\nvalue = [40, 8]"] ;
233 -> 235 ;
236 [label="entropy = 0.0\nsamples = 4\nvalue = [4, 0]"] ;
235 -> 236 ;
237 [label="X[0] <= 31.5\nentropy = 0.684\nsamples = 44\nvalue = [36, 8]"] ;
235 -> 237 ;
238 [label="X[6] <= 2.5\nentropy = 0.811\nsamples = 20\nvalue = [15, 5]"] ;
237 -> 238 ;
239 [label="X[0] <= 29.35\nentropy = 0.65\nsamples = 12\nvalue = [10, 2]"] ;
238 -> 239 ;
240 [label="entropy = 0.0\nsamples = 5\nvalue = [5, 0]"] ;
239 -> 240 ;
241 [label="X[0] <= 29.85\nentropy = 0.863\nsamples = 7\nvalue = [5, 2]"] ;
239 -> 241 ;
242 [label="entropy = 0.0\nsamples = 1\nvalue = [0, 1]"] ;
241 -> 242 ;
243 [label="X[0] <= 30.5\nentropy = 0.65\nsamples = 6\nvalue = [5, 1]"] ;
241 -> 243 ;
244 [label="entropy = 0.0\nsamples = 4\nvalue = [4, 0]"] ;
243 -> 244 ;
245 [label="X[4] <= 11.75\nentropy = 1.0\nsamples = 2\nvalue = [1, 1]"] ;
243 -> 245 ;
246 [label="entropy = 0.0\nsamples = 1\nvalue = [1, 0]"] ;
245 -> 246 ;
247 [label="entropy = 0.0\nsamples = 1\nvalue = [0, 1]"] ;
245 -> 247 ;
248 [label="X[0] <= 27.5\nentropy = 0.954\nsamples = 8\nvalue = [5, 3]"] ;
238 -> 248 ;
249 [label="entropy = 0.0\nsamples = 1\nvalue = [0, 1]"] ;
248 -> 249 ;
250 [label="X[0] <= 29.85\nentropy = 0.863\nsamples = 7\nvalue = [5, 2]"] ;
248 -> 250 ;
251 [label="X[4] <= 9.492\nentropy = 0.65\nsamples = 6\nvalue = [5, 1]"] ;
250 -> 251 ;
252 [label="entropy = 0.0\nsamples = 2\nvalue = [2, 0]"] ;
251 -> 252 ;
253 [label="X[0] <= 28.5\nentropy = 0.811\nsamples = 4\nvalue = [3, 1]"] ;
251 -> 253 ;
254 [label="entropy = 0.0\nsamples = 2\nvalue = [2, 0]"] ;
253 -> 254 ;
255 [label="X[0] <= 29.35\nentropy = 1.0\nsamples = 2\nvalue = [1, 1]"] ;
253 -> 255 ;
256 [label="entropy = 0.0\nsamples = 1\nvalue = [0, 1]"] ;
255 -> 256 ;
257 [label="entropy = 0.0\nsamples = 1\nvalue = [1, 0]"] ;
255 -> 257 ;
258 [label="entropy = 0.0\nsamples = 1\nvalue = [0, 1]"] ;
250 -> 258 ;
259 [label="X[6] <= 2.5\nentropy = 0.544\nsamples = 24\nvalue = [21, 3]"] ;
237 -> 259 ;
260 [label="X[0] <= 59.5\nentropy = 0.61\nsamples = 20\nvalue = [17, 3]"] ;
259 -> 260 ;
261 [label="X[4] <= 12.762\nentropy = 0.523\nsamples = 17\nvalue = [15, 2]"] ;
260 -> 261 ;
262 [label="entropy = 0.0\nsamples = 6\nvalue = [6, 0]"] ;
261 -> 262 ;
263 [label="X[0] <= 45.0\nentropy = 0.684\nsamples = 11\nvalue = [9, 2]"] ;
261 -> 263 ;
264 [label="X[0] <= 40.5\nentropy = 0.811\nsamples = 8\nvalue = [6, 2]"] ;
263 -> 264 ;
265 [label="X[0] <= 35.0\nentropy = 0.65\nsamples = 6\nvalue = [5, 1]"] ;
264 -> 265 ;
266 [label="entropy = 0.918\nsamples = 3\nvalue = [2, 1]"] ;
265 -> 266 ;
267 [label="entropy = 0.0\nsamples = 3\nvalue = [3, 0]"] ;
265 -> 267 ;
268 [label="entropy = 1.0\nsamples = 2\nvalue = [1, 1]"] ;
264 -> 268 ;
269 [label="entropy = 0.0\nsamples = 3\nvalue = [3, 0]"] ;
263 -> 269 ;
270 [label="X[0] <= 64.0\nentropy = 0.918\nsamples = 3\nvalue = [2, 1]"] ;
260 -> 270 ;
271 [label="entropy = 0.0\nsamples = 1\nvalue = [0, 1]"] ;
270 -> 271 ;
272 [label="entropy = 0.0\nsamples = 2\nvalue = [2, 0]"] ;
270 -> 272 ;
273 [label="entropy = 0.0\nsamples = 4\nvalue = [4, 0]"] ;
259 -> 273 ;
274 [label="X[4] <= 22.887\nentropy = 0.201\nsamples = 64\nvalue = [62, 2]"] ;
148 -> 274 ;
275 [label="entropy = 0.0\nsamples = 37\nvalue = [37, 0]"] ;
274 -> 275 ;
276 [label="X[4] <= 23.35\nentropy = 0.381\nsamples = 27\nvalue = [25, 2]"] ;
274 -> 276 ;
277 [label="entropy = 0.0\nsamples = 1\nvalue = [0, 1]"] ;
276 -> 277 ;
278 [label="X[0] <= 33.0\nentropy = 0.235\nsamples = 26\nvalue = [25, 1]"] ;
276 -> 278 ;
279 [label="X[0] <= 31.5\nentropy = 0.414\nsamples = 12\nvalue = [11, 1]"] ;
278 -> 279 ;
280 [label="entropy = 0.0\nsamples = 11\nvalue = [11, 0]"] ;
279 -> 280 ;
281 [label="entropy = 0.0\nsamples = 1\nvalue = [0, 1]"] ;
279 -> 281 ;
282 [label="entropy = 0.0\nsamples = 14\nvalue = [14, 0]"] ;
278 -> 282 ;
283 [label="X[4] <= 15.148\nentropy = 0.722\nsamples = 45\nvalue = [36, 9]"] ;
147 -> 283 ;
284 [label="X[0] <= 29.85\nentropy = 0.552\nsamples = 39\nvalue = [34, 5]"] ;
283 -> 284 ;
285 [label="X[4] <= 14.158\nentropy = 0.65\nsamples = 30\nvalue = [25, 5]"] ;
284 -> 285 ;
286 [label="X[6] <= 2.5\nentropy = 0.722\nsamples = 25\nvalue = [20, 5]"] ;
285 -> 286 ;
287 [label="entropy = 0.0\nsamples = 1\nvalue = [0, 1]"] ;
286 -> 287 ;
288 [label="X[0] <= 29.35\nentropy = 0.65\nsamples = 24\nvalue = [20, 4]"] ;
286 -> 288 ;
289 [label="X[4] <= 7.562\nentropy = 0.881\nsamples = 10\nvalue = [7, 3]"] ;
288 -> 289 ;
290 [label="X[0] <= 22.75\nentropy = 0.764\nsamples = 9\nvalue = [7, 2]"] ;
289 -> 290 ;
291 [label="X[0] <= 18.5\nentropy = 0.918\nsamples = 6\nvalue = [4, 2]"] ;
290 -> 291 ;
292 [label="entropy = 0.0\nsamples = 2\nvalue = [2, 0]"] ;
291 -> 292 ;
293 [label="X[4] <= 5.619\nentropy = 1.0\nsamples = 4\nvalue = [2, 2]"] ;
291 -> 293 ;
294 [label="entropy = 0.0\nsamples = 1\nvalue = [1, 0]"] ;
293 -> 294 ;
295 [label="X[4] <= 7.227\nentropy = 0.918\nsamples = 3\nvalue = [1, 2]"] ;
293 -> 295 ;
296 [label="entropy = 0.0\nsamples = 1\nvalue = [0, 1]"] ;
295 -> 296 ;
297 [label="X[0] <= 21.0\nentropy = 1.0\nsamples = 2\nvalue = [1, 1]"] ;
295 -> 297 ;
298 [label="entropy = 0.0\nsamples = 1\nvalue = [0, 1]"] ;
297 -> 298 ;
299 [label="entropy = 0.0\nsamples = 1\nvalue = [1, 0]"] ;
297 -> 299 ;
300 [label="entropy = 0.0\nsamples = 3\nvalue = [3, 0]"] ;
290 -> 300 ;
301 [label="entropy = 0.0\nsamples = 1\nvalue = [0, 1]"] ;
289 -> 301 ;
302 [label="X[4] <= 7.227\nentropy = 0.371\nsamples = 14\nvalue = [13, 1]"] ;
288 -> 302 ;
303 [label="entropy = 0.0\nsamples = 5\nvalue = [5, 0]"] ;
302 -> 303 ;
304 [label="X[4] <= 7.562\nentropy = 0.503\nsamples = 9\nvalue = [8, 1]"] ;
302 -> 304 ;
305 [label="entropy = 0.65\nsamples = 6\nvalue = [5, 1]"] ;
304 -> 305 ;
306 [label="entropy = 0.0\nsamples = 3\nvalue = [3, 0]"] ;
304 -> 306 ;
307 [label="entropy = 0.0\nsamples = 5\nvalue = [5, 0]"] ;
285 -> 307 ;
308 [label="entropy = 0.0\nsamples = 9\nvalue = [9, 0]"] ;
284 -> 308 ;
309 [label="X[4] <= 20.233\nentropy = 0.918\nsamples = 6\nvalue = [2, 4]"] ;
283 -> 309 ;
310 [label="entropy = 0.0\nsamples = 4\nvalue = [0, 4]"] ;
309 -> 310 ;
311 [label="entropy = 0.0\nsamples = 2\nvalue = [2, 0]"] ;
309 -> 311 ;
312 [label="X[9] <= 2.5\nentropy = 0.924\nsamples = 162\nvalue = [107, 55]"] ;
138 -> 312 ;
313 [label="X[0] <= 13.5\nentropy = 0.964\nsamples = 139\nvalue = [85, 54]"] ;
312 -> 313 ;
314 [label="entropy = 0.0\nsamples = 7\nvalue = [0, 7]"] ;
313 -> 314 ;
315 [label="X[4] <= 26.469\nentropy = 0.939\nsamples = 132\nvalue = [85, 47]"] ;
313 -> 315 ;
316 [label="entropy = 0.0\nsamples = 4\nvalue = [0, 4]"] ;
315 -> 316 ;
317 [label="X[0] <= 53.0\nentropy = 0.921\nsamples = 128\nvalue = [85, 43]"] ;
315 -> 317 ;
318 [label="X[4] <= 26.775\nentropy = 0.956\nsamples = 106\nvalue = [66, 40]"] ;
317 -> 318 ;
319 [label="X[0] <= 46.5\nentropy = 0.764\nsamples = 9\nvalue = [2, 7]"] ;
318 -> 319 ;
320 [label="X[3] <= 0.5\nentropy = 0.863\nsamples = 7\nvalue = [2, 5]"] ;
319 -> 320 ;
321 [label="entropy = 0.0\nsamples = 1\nvalue = [0, 1]"] ;
320 -> 321 ;
322 [label="X[0] <= 28.85\nentropy = 0.918\nsamples = 6\nvalue = [2, 4]"] ;
320 -> 322 ;
323 [label="entropy = 0.0\nsamples = 1\nvalue = [0, 1]"] ;
322 -> 323 ;
324 [label="X[0] <= 31.85\nentropy = 0.971\nsamples = 5\nvalue = [2, 3]"] ;
322 -> 324 ;
325 [label="entropy = 1.0\nsamples = 2\nvalue = [1, 1]"] ;
324 -> 325 ;
326 [label="X[0] <= 39.5\nentropy = 0.918\nsamples = 3\nvalue = [1, 2]"] ;
324 -> 326 ;
327 [label="entropy = 0.0\nsamples = 1\nvalue = [0, 1]"] ;
326 -> 327 ;
328 [label="entropy = 1.0\nsamples = 2\nvalue = [1, 1]"] ;
326 -> 328 ;
329 [label="entropy = 0.0\nsamples = 2\nvalue = [0, 2]"] ;
319 -> 329 ;
330 [label="X[4] <= 29.1\nentropy = 0.925\nsamples = 97\nvalue = [64, 33]"] ;
318 -> 330 ;
331 [label="entropy = 0.0\nsamples = 9\nvalue = [9, 0]"] ;
330 -> 331 ;
332 [label="X[4] <= 30.598\nentropy = 0.954\nsamples = 88\nvalue = [55, 33]"] ;
330 -> 332 ;
333 [label="X[4] <= 30.285\nentropy = 0.881\nsamples = 10\nvalue = [3, 7]"] ;
332 -> 333 ;
334 [label="X[0] <= 31.1\nentropy = 1.0\nsamples = 6\nvalue = [3, 3]"] ;
333 -> 334 ;
335 [label="X[0] <= 29.35\nentropy = 0.811\nsamples = 4\nvalue = [1, 3]"] ;
334 -> 335 ;
336 [label="X[1] <= 0.5\nentropy = 1.0\nsamples = 2\nvalue = [1, 1]"] ;
335 -> 336 ;
337 [label="entropy = 0.0\nsamples = 1\nvalue = [1, 0]"] ;
336 -> 337 ;
338 [label="entropy = 0.0\nsamples = 1\nvalue = [0, 1]"] ;
336 -> 338 ;
339 [label="entropy = 0.0\nsamples = 2\nvalue = [0, 2]"] ;
335 -> 339 ;
340 [label="entropy = 0.0\nsamples = 2\nvalue = [2, 0]"] ;
334 -> 340 ;
341 [label="entropy = 0.0\nsamples = 4\nvalue = [0, 4]"] ;
333 -> 341 ;
342 [label="X[4] <= 52.277\nentropy = 0.918\nsamples = 78\nvalue = [52, 26]"] ;
332 -> 342 ;
343 [label="X[0] <= 47.5\nentropy = 0.619\nsamples = 26\nvalue = [22, 4]"] ;
342 -> 343 ;
344 [label="X[4] <= 36.125\nentropy = 0.529\nsamples = 25\nvalue = [22, 3]"] ;
343 -> 344 ;
345 [label="X[4] <= 35.25\nentropy = 0.845\nsamples = 11\nvalue = [8, 3]"] ;
344 -> 345 ;
346 [label="X[1] <= 0.5\nentropy = 0.544\nsamples = 8\nvalue = [7, 1]"] ;
345 -> 346 ;
347 [label="entropy = 0.0\nsamples = 6\nvalue = [6, 0]"] ;
346 -> 347 ;
348 [label="X[4] <= 30.848\nentropy = 1.0\nsamples = 2\nvalue = [1, 1]"] ;
346 -> 348 ;
349 [label="entropy = 0.0\nsamples = 1\nvalue = [1, 0]"] ;
348 -> 349 ;
350 [label="entropy = 0.0\nsamples = 1\nvalue = [0, 1]"] ;
348 -> 350 ;
351 [label="X[0] <= 37.35\nentropy = 0.918\nsamples = 3\nvalue = [1, 2]"] ;
345 -> 351 ;
352 [label="entropy = 0.0\nsamples = 2\nvalue = [0, 2]"] ;
351 -> 352 ;
353 [label="entropy = 0.0\nsamples = 1\nvalue = [1, 0]"] ;
351 -> 353 ;
354 [label="entropy = 0.0\nsamples = 14\nvalue = [14, 0]"] ;
344 -> 354 ;
355 [label="entropy = 0.0\nsamples = 1\nvalue = [0, 1]"] ;
343 -> 355 ;
356 [label="X[4] <= 59.087\nentropy = 0.983\nsamples = 52\nvalue = [30, 22]"] ;
342 -> 356 ;
357 [label="X[0] <= 22.0\nentropy = 0.896\nsamples = 16\nvalue = [5, 11]"] ;
356 -> 357 ;
358 [label="entropy = 0.0\nsamples = 1\nvalue = [1, 0]"] ;
357 -> 358 ;
359 [label="X[0] <= 49.5\nentropy = 0.837\nsamples = 15\nvalue = [4, 11]"] ;
357 -> 359 ;
360 [label="X[0] <= 27.5\nentropy = 0.75\nsamples = 14\nvalue = [3, 11]"] ;
359 -> 360 ;
361 [label="entropy = 0.0\nsamples = 3\nvalue = [0, 3]"] ;
360 -> 361 ;
362 [label="X[0] <= 28.85\nentropy = 0.845\nsamples = 11\nvalue = [3, 8]"] ;
360 -> 362 ;
363 [label="entropy = 0.0\nsamples = 1\nvalue = [1, 0]"] ;
362 -> 363 ;
364 [label="X[0] <= 39.5\nentropy = 0.722\nsamples = 10\nvalue = [2, 8]"] ;
362 -> 364 ;
365 [label="X[0] <= 34.5\nentropy = 0.811\nsamples = 8\nvalue = [2, 6]"] ;
364 -> 365 ;
366 [label="X[0] <= 30.35\nentropy = 0.65\nsamples = 6\nvalue = [1, 5]"] ;
365 -> 366 ;
367 [label="entropy = 0.918\nsamples = 3\nvalue = [1, 2]"] ;
366 -> 367 ;
368 [label="entropy = 0.0\nsamples = 3\nvalue = [0, 3]"] ;
366 -> 368 ;
369 [label="X[5] <= 0.5\nentropy = 1.0\nsamples = 2\nvalue = [1, 1]"] ;
365 -> 369 ;
370 [label="entropy = 0.0\nsamples = 1\nvalue = [1, 0]"] ;
369 -> 370 ;
371 [label="entropy = 0.0\nsamples = 1\nvalue = [0, 1]"] ;
369 -> 371 ;
372 [label="entropy = 0.0\nsamples = 2\nvalue = [0, 2]"] ;
364 -> 372 ;
373 [label="entropy = 0.0\nsamples = 1\nvalue = [1, 0]"] ;
359 -> 373 ;
374 [label="X[4] <= 379.925\nentropy = 0.888\nsamples = 36\nvalue = [25, 11]"] ;
356 -> 374 ;
375 [label="X[4] <= 134.642\nentropy = 0.834\nsamples = 34\nvalue = [25, 9]"] ;
374 -> 375 ;
376 [label="X[4] <= 86.29\nentropy = 0.906\nsamples = 28\nvalue = [19, 9]"] ;
375 -> 376 ;
377 [label="X[3] <= 0.5\nentropy = 0.65\nsamples = 18\nvalue = [15, 3]"] ;
376 -> 377 ;
378 [label="X[4] <= 77.965\nentropy = 0.985\nsamples = 7\nvalue = [4, 3]"] ;
377 -> 378 ;
379 [label="X[4] <= 62.369\nentropy = 0.811\nsamples = 4\nvalue = [1, 3]"] ;
378 -> 379 ;
380 [label="entropy = 0.0\nsamples = 1\nvalue = [1, 0]"] ;
379 -> 380 ;
381 [label="entropy = 0.0\nsamples = 3\nvalue = [0, 3]"] ;
379 -> 381 ;
382 [label="entropy = 0.0\nsamples = 3\nvalue = [3, 0]"] ;
378 -> 382 ;
383 [label="entropy = 0.0\nsamples = 11\nvalue = [11, 0]"] ;
377 -> 383 ;
384 [label="X[3] <= 0.5\nentropy = 0.971\nsamples = 10\nvalue = [4, 6]"] ;
376 -> 384 ;
385 [label="X[4] <= 89.552\nentropy = 0.985\nsamples = 7\nvalue = [4, 3]"] ;
384 -> 385 ;
386 [label="entropy = 0.0\nsamples = 1\nvalue = [0, 1]"] ;
385 -> 386 ;
387 [label="X[0] <= 34.5\nentropy = 0.918\nsamples = 6\nvalue = [4, 2]"] ;
385 -> 387 ;
388 [label="X[5] <= 1.0\nentropy = 0.918\nsamples = 3\nvalue = [1, 2]"] ;
387 -> 388 ;
389 [label="X[4] <= 99.99\nentropy = 1.0\nsamples = 2\nvalue = [1, 1]"] ;
388 -> 389 ;
390 [label="entropy = 0.0\nsamples = 1\nvalue = [0, 1]"] ;
389 -> 390 ;
391 [label="entropy = 0.0\nsamples = 1\nvalue = [1, 0]"] ;
389 -> 391 ;
392 [label="entropy = 0.0\nsamples = 1\nvalue = [0, 1]"] ;
388 -> 392 ;
393 [label="entropy = 0.0\nsamples = 3\nvalue = [3, 0]"] ;
387 -> 393 ;
394 [label="entropy = 0.0\nsamples = 3\nvalue = [0, 3]"] ;
384 -> 394 ;
395 [label="entropy = 0.0\nsamples = 6\nvalue = [6, 0]"] ;
375 -> 395 ;
396 [label="entropy = 0.0\nsamples = 2\nvalue = [0, 2]"] ;
374 -> 396 ;
397 [label="X[0] <= 75.5\nentropy = 0.575\nsamples = 22\nvalue = [19, 3]"] ;
317 -> 397 ;
398 [label="X[3] <= 0.5\nentropy = 0.454\nsamples = 21\nvalue = [19, 2]"] ;
397 -> 398 ;
399 [label="X[9] <= 0.5\nentropy = 0.811\nsamples = 8\nvalue = [6, 2]"] ;
398 -> 399 ;
400 [label="X[0] <= 57.0\nentropy = 0.592\nsamples = 7\nvalue = [6, 1]"] ;
399 -> 400 ;
401 [label="X[4] <= 33.098\nentropy = 1.0\nsamples = 2\nvalue = [1, 1]"] ;
400 -> 401 ;
402 [label="entropy = 0.0\nsamples = 1\nvalue = [1, 0]"] ;
401 -> 402 ;
403 [label="entropy = 0.0\nsamples = 1\nvalue = [0, 1]"] ;
401 -> 403 ;
404 [label="entropy = 0.0\nsamples = 5\nvalue = [5, 0]"] ;
400 -> 404 ;
405 [label="entropy = 0.0\nsamples = 1\nvalue = [0, 1]"] ;
399 -> 405 ;
406 [label="entropy = 0.0\nsamples = 13\nvalue = [13, 0]"] ;
398 -> 406 ;
407 [label="entropy = 0.0\nsamples = 1\nvalue = [0, 1]"] ;
397 -> 407 ;
408 [label="X[0] <= 3.5\nentropy = 0.258\nsamples = 23\nvalue = [22, 1]"] ;
312 -> 408 ;
409 [label="X[0] <= 2.5\nentropy = 0.722\nsamples = 5\nvalue = [4, 1]"] ;
408 -> 409 ;
410 [label="entropy = 0.0\nsamples = 4\nvalue = [4, 0]"] ;
409 -> 410 ;
411 [label="entropy = 0.0\nsamples = 1\nvalue = [0, 1]"] ;
409 -> 411 ;
412 [label="entropy = 0.0\nsamples = 18\nvalue = [18, 0]"] ;
408 -> 412 ;
}
